0.2701 0.1085 0.0029 0.9567 211.50 11.88 -3.75 2.13 0.59 9.59 0.1000 -0.0400 0.0000 0.0178 0.0078 0.0311 2.03 0.63 9.57 188 365 370 398 215 
0.2686 0.1093 0.0037 0.9570 211.31 11.94 -3.87 2.20 0.59 9.53 0.1600 -0.0200 -0.0200 0.0233 0.0244 0.0133 2.01 0.66 9.57 189 370 369 396 216 
0.2675 0.1082 0.0054 0.9575 211.06 11.63 -4.00 2.88 0.23 11.35 1.0100 -0.1400 3.4100 1.5411 -0.2178 0.4778 2.23 1.41 9.44 193 418 329 319 215 
0.2172 0.1759 0.0207 0.9599 204.94 22.19 0.69 6.13 3.24 13.95 1.9700 5.8900 4.6800 -5.8022 -0.6867 1.3056 3.67 -4.55 7.87 194 432 201 196 139 
0.1935 0.1276 -0.3724 0.8986 205.37 21.50 46.38 0.31 -2.95 -2.94 -3.5100 3.5800 -9.2600 -1.0778 0.0000 0.2311 3.48 -7.29 5.54 196 436 212 203 143 
0.2076 0.0955 -0.4363 0.8703 206.62 19.19 46.44 8.87 -1.01 3.72 6.3000 5.3000 -2.2800 2.8744 -0.0289 1.2622 2.76 -5.33 7.75 193 438 213 205 140 
0.1061 0.1027 -0.2644 0.9531 187.25 13.63 29.87 2.16 -10.62 19.42 -1.9600 -3.8700 11.3800 -1.4622 -0.8300 2.7656 1.75 -5.73 7.75 190 437 215 207 144 
-0.0911 0.0952 -0.3605 0.9234 166.50 3.56 47.75 -4.09 -4.73 9.07 -5.1300 3.6500 2.2000 -2.5733 1.6378 0.6444 -0.56 -8.51 4.82 187 434 215 208 147 
-0.0678 0.0051 -0.5469 0.8344 174.62 -3.00 69.75 -2.56 -0.56 4.41 -1.9100 9.0100 1.0200 -1.5633 1.9578 -1.8000 0.30 -9.56 2.15 186 433 218 211 146 
0.1245 -0.0472 -0.6350 0.7609 204.50 6.50 78.44 8.25 -2.80 -2.67 8.0000 6.6200 -4.7500 2.0267 1.8456 -1.0022 1.52 -9.13 3.21 186 434 219 211 146 
0.2531 -0.0645 -0.5234 0.8110 211.50 10.31 58.38 10.38 -11.18 7.29 5.6100 -4.3400 3.5300 2.8233 -3.3022 1.4000 2.50 -7.03 6.35 186 428 220 213 147 
0.0658 0.1322 -0.3815 0.9125 183.81 17.56 45.88 -2.99 -8.59 12.54 -5.4400 0.3000 5.5000 -0.3200 -0.9489 0.6400 3.14 -7.07 6.02 184 425 219 213 147 
-0.0206 0.1916 -0.4034 0.8945 177.62 19.44 50.50 -1.59 -5.51 9.75 -4.7900 0.4800 5.9100 0.2678 -3.0178 -0.6978 4.72 -6.90 5.12 187 391 244 223 173 
-0.0455 0.3697 -0.4249 0.8251 173.31 36.00 71.31 14.18 -5.22 3.99 8.5400 3.1100 0.6100 -5.4678 0.2767 2.0000 4.89 -8.48 -0.52 191 353 349 406 218 
-0.0317 0.3160 -0.7405 0.5922 172.87 13.75 115.94 -0.99 1.67 -10.53 -3.8200 8.8600 -6.5500 -3.1922 -1.6222 1.0878 0.78 -7.28 -6.52 179 388 352 423 226 
-0.0852 0.2303 -0.8763 0.4146 154.12 1.75 125.06 -0.45 -0.80 -13.17 -0.6100 7.5600 -8.1300 7.8711 -1.9789 -1.2489 0.67 -9.73 -1.00 143 374 354 414 229 
-0.2355 0.2571 -0.5143 0.7836 145.56 12.94 53.56 8.67 12.65 7.42 8.4000 18.0400 4.7400 7.9700 0.8022 0.0500 2.80 -2.30 9.11 140 370 352 404 232 
-0.3560 0.1700 0.0604 0.9169 136.44 21.56 -3.19 3.91 2.77 18.99 0.0500 1.7200 8.2900 -0.2567 -0.8233 -0.4467 4.09 0.77 8.87 145 380 360 409 232 
-0.3318 0.2012 0.0966 0.9166 141.81 26.37 -1.50 3.75 1.03 6.40 -1.1300 0.8300 -3.0600 -0.6878 -0.4411 -1.0322 4.66 0.04 8.62 171 386 362 406 230 
-0.2449 0.2303 0.0859 0.9379 154.12 25.75 -6.37 0.27 1.61 8.31 -3.7700 0.7200 -0.7400 1.6967 2.2867 -4.2322 2.04 2.82 9.16 191 397 368 425 227 
;
