0.7787 -0.0773 -0.5508 -0.2903 40.00 64.44 -25.94 9.18 1.55 2.94 -1.0700 -0.1200 -0.1200 0.2533 1.0189 0.1589 8.54 1.77 4.47 178 288 292 297 178 
0.8116 -0.0620 -0.5118 -0.2747 37.44 60.00 -21.25 8.79 1.98 4.55 0.3100 0.0500 0.1300 -0.0556 -0.0344 0.0000 8.51 1.77 4.53 171 292 294 304 180 
0.8088 -0.0646 -0.5147 -0.2770 37.81 60.19 -21.25 8.42 1.63 4.74 -0.0800 -0.1200 0.2600 0.0011 0.0433 -0.0178 8.48 1.76 4.58 177 298 295 304 183 
0.8134 -0.0607 -0.5082 -0.2763 36.63 57.94 -19.56 15.77 5.60 12.13 3.3900 3.1500 5.8500 -3.7389 6.9500 0.7433 5.79 -0.10 7.90 186 361 203 185 127 
0.8818 -0.2147 -0.2288 -0.3521 51.69 31.81 24.69 2.17 -4.73 1.94 0.5100 0.8500 -3.3900 -3.7567 4.0322 -2.5000 3.29 -5.66 7.29 162 407 187 181 124 
0.7123 -0.3778 0.1107 -0.5811 79.25 15.81 46.13 5.65 -6.12 4.66 2.9300 1.2400 -1.7100 -1.5778 0.4444 0.4689 2.33 -7.63 5.68 164 413 191 182 123 
0.6755 -0.4434 0.1962 -0.5556 78.19 12.88 58.63 0.84 -6.43 1.85 -1.2900 1.7900 -3.2000 0.0222 -0.0344 -0.2044 2.27 -8.20 4.87 164 415 193 183 125 
0.6723 -0.4461 0.1898 -0.5594 78.87 14.56 55.00 10.04 -3.87 1.24 9.5800 1.4900 -5.0800 1.7789 -1.6956 1.0200 2.64 -7.22 6.07 166 412 191 184 128 
0.7896 -0.4018 0.0864 -0.4556 53.63 10.56 47.81 -3.79 -13.89 14.67 -6.4100 -5.4400 7.8800 -1.1078 -0.2256 1.7711 0.84 -7.70 6.00 165 421 199 189 129 
0.8210 -0.4497 0.1492 -0.3185 42.75 1.19 59.25 -5.10 -5.01 7.66 -5.5400 3.8800 2.6800 -1.9589 1.4178 -0.3156 -0.12 -9.07 3.71 166 421 201 192 132 
0.7242 -0.5294 0.2620 -0.3558 56.31 0.81 74.75 -1.82 -2.84 1.83 -1.8900 6.9400 -0.4800 -0.6456 1.8089 -1.5211 1.02 -9.54 2.01 165 417 204 192 134 
0.6073 -0.5426 0.3145 -0.4877 82.44 10.31 76.50 5.08 -1.54 -0.41 4.8800 7.1600 -3.9100 1.5178 1.6089 -1.4844 2.61 -8.74 3.57 166 410 198 197 135 
0.5751 -0.4297 0.2358 -0.6550 96.31 16.37 52.56 12.78 -6.62 8.59 7.3200 -2.3900 5.4100 3.8267 -1.3322 2.2822 2.29 -5.66 7.66 173 411 206 199 140 
0.7618 -0.3028 0.0728 -0.5681 69.31 14.00 35.00 -4.48 -9.01 13.48 -6.8200 -2.0900 4.1600 -0.6067 -0.9467 0.6644 2.68 -5.94 7.32 169 414 208 205 141 
0.7958 -0.3616 0.0480 -0.4833 61.50 15.81 40.56 -3.03 -6.79 9.39 -5.4400 -0.2000 6.4200 1.2922 -4.3578 1.6000 3.81 -5.99 6.75 178 404 293 295 189 
0.8456 -0.4332 -0.1187 -0.2886 35.13 25.12 54.00 6.05 -6.13 6.74 1.6900 2.4600 -0.0300 -4.9178 -1.6500 1.1522 3.63 -8.90 1.93 177 402 328 350 202 
0.6717 -0.7201 -0.0444 -0.1683 24.19 14.13 100.81 1.69 -2.27 -8.38 -1.4400 5.8500 -6.9200 -2.7022 1.6978 2.4189 1.11 -8.67 -4.44 178 401 332 362 203 
0.4801 -0.8586 0.1306 -0.1232 27.00 4.44 121.37 -1.68 -3.98 -12.07 -3.2100 4.9800 -8.1500 1.9367 -0.8011 -1.4244 1.21 -8.80 -4.15 174 386 346 372 204 
0.6396 -0.7549 0.0107 -0.1445 24.00 14.38 81.44 2.35 9.43 -7.81 0.6800 21.0800 -11.0600 13.5489 -1.1456 -2.6056 4.29 -2.64 8.41 191 398 337 396 212 
0.9551 0.1172 -0.2515 -0.1041 9.44 24.94 -31.25 4.25 20.37 20.80 -1.4000 12.9900 14.6100 1.8211 -1.4222 0.5600 4.65 6.02 6.17 196 395 352 398 216 
0.8992 0.3020 -0.3107 -0.0602 9.88 33.44 -39.19 6.53 8.14 10.45 0.5700 3.0500 3.2200 -4.0911 -3.0444 0.7189 6.93 2.99 6.25 194 346 335 365 217 
0.8454 -0.0422 -0.5142 -0.1381 18.44 76.44 19.31 -4.92 -1.42 -8.35 -13.4700 -0.1900 -7.0700 -3.6633 -13.0433 2.1211 6.41 -1.70 -7.22 191 273 273 291 210 
0.2714 -0.3931 -0.8728 -0.1002 48.00 28.75 -176.44 9.56 1.46 -7.82 3.0900 -0.0200 -1.7100 -3.4922 -1.8244 0.0400 3.38 2.89 -8.73 198 277 285 306 215 
0.0757 -0.4288 -0.8636 -0.2538 53.06 21.00 -154.87 5.01 3.70 -9.89 0.5500 0.1700 -1.1800 -0.5689 0.1156 0.0656 3.66 4.28 -8.02 203 301 288 328 218 
0.0743 -0.4282 -0.8488 -0.3013 53.44 22.50 -151.31 8.49 2.63 -19.67 5.4000 -1.5300 -13.3100 3.1989 -1.4044 0.3022 3.21 2.69 -8.86 201 341 310 341 226 
0.1984 -0.4447 -0.8723 -0.0452 54.81 27.50 153.31 3.34 6.78 3.56 -6.1800 14.2200 8.7400 6.5356 3.5411 2.7289 4.64 -8.32 -2.31 208 425 363 422 223 
0.5575 -0.4103 -0.6286 0.3547 295.25 23.12 95.62 0.25 -1.43 0.28 -3.4100 6.7400 1.0100 0.3756 0.5322 0.1589 3.71 -9.07 -0.33 212 428 371 423 224 
0.6003 -0.4273 -0.5750 0.3556 299.75 23.12 91.94 2.33 -6.99 0.64 -1.2800 1.8500 0.7100 -0.5467 0.1633 -0.6678 4.31 -8.78 -0.66 206 424 373 420 222 
0.6072 -0.4246 -0.6035 0.2947 309.69 30.75 97.25 1.08 -3.71 -0.46 -3.8500 4.2300 0.8800 -0.5033 -1.5556 -2.6678 6.25 -7.30 -1.92 172 340 266 296 211 
0.6234 -0.2789 -0.7109 0.1679 342.56 62.88 98.87 13.10 -3.34 -0.48 3.1400 0.0200 -0.6300 0.2167 4.4244 -3.6856 9.26 -1.13 3.01 192 314 308 308 203 
;
