0.5898 0.0508 0.1596 0.7899 253.44 -6.19 -18.25 -1.19 3.00 9.29 -0.2000 -0.0200 -0.0100 -0.0033 -0.1633 0.0356 -0.95 3.06 9.26 167 333 345 378 212 
0.5904 0.0585 0.1538 0.7902 253.56 -4.94 -18.31 -1.34 3.27 10.26 -0.6800 0.2200 1.9800 1.3778 -2.0967 0.0744 0.26 4.12 8.89 153 292 348 401 219 
0.5504 0.1767 0.2237 0.7848 245.56 2.50 -33.44 -1.73 11.31 10.13 -0.0300 5.5600 2.7100 0.2222 -5.6700 6.4600 5.72 3.41 7.19 161 302 307 335 218 
0.2000 0.3303 -0.0480 0.9212 200.06 37.25 5.81 1.69 4.48 7.11 -3.2500 6.6600 -2.4400 -5.9133 0.6356 4.5422 4.36 -5.82 6.57 163 308 303 337 218 
0.0422 0.1097 -0.4853 0.8664 187.69 5.69 67.69 -0.66 -4.18 -4.17 -0.1700 4.7500 -6.0700 -5.2778 4.6289 0.8667 -0.61 -9.75 -0.73 162 337 318 349 218 
0.1705 -0.2562 -0.7551 0.5789 218.69 -1.00 111.56 -1.89 -7.90 -8.29 -2.3800 0.9800 -5.4200 -0.6800 0.8622 -0.7322 0.59 -8.66 -4.55 142 338 327 345 217 
0.2560 -0.2995 -0.7872 0.4743 242.12 9.63 108.44 -2.12 -4.31 -9.75 -3.9200 6.6600 -4.0300 5.6356 2.4956 -0.9911 2.48 -9.31 1.78 149 338 328 350 220 
0.4915 -0.2274 -0.5611 0.6260 256.37 16.50 77.94 2.17 -6.92 9.02 -0.1900 3.0500 6.0600 -3.8822 -2.6978 0.1422 2.90 -9.29 -1.11 141 337 323 346 219 
0.3376 -0.2531 -0.7633 0.4892 248.56 14.81 111.69 -0.38 -9.18 -24.90 -3.0900 -0.3400 -21.6500 4.4822 1.6367 -0.1167 2.75 -9.28 -1.52 151 332 324 356 220 
0.4554 -0.2167 -0.6134 0.6078 256.87 16.37 71.37 4.14 -3.01 25.29 2.1500 2.7200 16.6300 -0.4844 0.1378 -0.1111 2.76 -8.70 3.57 157 336 339 367 219 
0.5049 -0.2146 -0.5472 0.6321 256.62 15.88 73.06 2.12 -8.59 0.91 -0.3100 1.4900 -1.0400 -0.0478 -0.0433 0.6033 2.23 -9.19 2.58 163 362 226 220 162 
0.4796 -0.2403 -0.5513 0.6390 251.00 12.44 72.69 6.43 -3.32 0.74 -2.7300 2.1200 -4.5300 2.5011 0.3067 0.8444 1.40 -8.45 4.77 168 416 187 185 134 
0.4613 -0.1711 -0.3984 0.7740 239.75 6.00 46.94 8.67 -1.18 9.88 8.6800 5.1900 3.6900 3.3689 -1.5500 1.3267 1.44 -5.25 8.15 168 421 190 197 140 
0.3638 -0.0212 -0.2425 0.8991 219.75 7.25 26.00 0.89 -10.91 19.17 -0.0400 -5.6900 10.0100 -1.6567 -0.5756 2.4067 0.82 -5.20 8.27 162 426 201 199 143 
0.1833 -0.0582 -0.3292 0.9245 201.00 -1.62 42.81 -4.48 -2.18 9.74 -4.9100 4.8300 2.1200 -2.6200 1.4544 -0.3167 -0.93 -7.94 5.67 167 430 193 204 146 
0.2053 -0.1577 -0.4828 0.8366 211.87 -1.56 64.56 -3.57 -0.97 0.68 -2.6200 7.9400 -3.3300 -0.9844 0.6556 -2.3744 1.31 -9.13 3.31 166 431 194 205 147 
0.3755 -0.1479 -0.5560 0.7266 239.44 13.50 68.62 3.97 -3.03 1.40 1.5400 5.8700 -2.3200 0.7444 2.0122 -1.6267 2.81 -8.34 4.32 167 429 198 203 151 
0.5338 -0.1469 -0.4583 0.6954 257.12 15.81 51.06 9.14 -2.34 5.86 7.7900 5.2600 0.9600 2.9078 0.7922 0.0200 2.29 -5.83 7.54 167 431 199 202 148 
0.5485 -0.0554 -0.2750 0.7877 245.69 12.31 28.06 5.23 -6.67 18.34 1.0200 -3.1100 9.9500 1.0011 -2.5233 3.3733 2.61 -4.22 8.45 167 424 201 210 150 
0.3126 0.0688 -0.2903 0.9018 214.94 18.50 33.00 -2.53 -4.81 7.32 -5.6100 1.1500 -0.5800 -0.1856 -1.2956 1.2500 3.31 -5.64 7.30 172 402 197 212 153 
0.1619 0.1476 -0.3423 0.9137 196.19 28.50 39.81 5.97 -7.23 10.06 6.8500 0.7300 4.9200 3.7156 -9.9878 2.0189 7.58 -5.42 3.05 189 350 343 406 223 
-0.0959 0.4794 -0.3880 0.7813 164.94 35.13 75.69 7.69 -2.45 0.72 2.9400 8.0700 -2.5100 -4.8222 2.5089 3.7178 2.87 -9.37 -0.26 191 395 352 412 221 
-0.0991 0.2264 -0.7493 0.6144 163.00 3.06 111.06 -2.05 0.40 -13.57 -1.1400 7.8200 -10.0200 -3.6644 1.6078 2.6322 -0.68 -7.46 -6.32 195 391 360 394 218 
-0.0484 -0.0175 -0.9075 0.4168 168.87 -6.81 126.69 -3.89 -5.77 -13.19 -2.6500 5.1900 -8.1900 7.8378 -0.5822 -0.0067 -1.22 -9.71 -0.47 200 390 355 400 218 
-0.0732 0.0189 -0.5437 0.8359 169.31 -0.25 46.25 4.04 18.00 -2.41 3.2500 26.0200 -5.1400 13.0178 -1.9778 -0.5278 1.27 1.45 9.61 203 398 372 411 220 
-0.1250 0.0546 0.2405 0.9610 163.87 10.75 -33.25 2.32 12.72 19.00 0.5900 5.5100 8.9800 -0.2000 -1.5689 -0.3967 2.59 5.55 7.65 205 400 375 410 223 
-0.0955 0.1345 0.2957 0.9409 169.37 19.69 -31.87 3.83 4.99 7.36 0.2500 0.2900 -0.9500 -1.2889 -0.3033 -0.3022 3.48 4.02 8.23 204 400 358 398 219 
;
