0.9054 0.0439 -0.3195 -0.2761 33.88 33.63 -17.87 5.41 2.50 7.79 -0.0200 0.0300 -0.0400 -0.0033 0.0367 -0.0022 5.40 2.51 7.78 180 319 337 351 216 
0.9061 0.0446 -0.3176 -0.2759 33.81 33.31 -17.81 5.41 2.45 7.93 0.1000 -0.0700 0.1100 0.0744 0.2267 -0.0156 5.26 2.55 7.86 180 320 334 350 217 
0.9114 0.0593 -0.3010 -0.2740 32.69 28.62 -19.37 13.81 9.85 17.71 4.9900 5.9900 7.4700 -3.0533 -0.1300 1.6589 4.55 1.48 8.55 182 342 263 258 217 
0.9567 -0.0813 -0.2213 -0.1710 16.44 22.87 15.56 -0.39 -0.32 5.47 -4.0900 2.4700 -6.1900 -5.1044 0.8178 2.7289 1.97 -6.57 7.00 183 379 185 192 209 
0.9012 -0.4257 -0.0182 -0.0791 9.94 4.31 52.88 -1.31 -3.08 -2.05 -2.4200 5.1500 -7.7500 0.8756 1.2289 -0.3644 0.31 -7.65 6.11 184 387 191 202 210 
0.9140 -0.3896 0.0202 -0.1116 14.19 4.50 41.44 3.89 1.39 2.47 4.8000 6.7200 -3.5000 4.4144 -1.2900 -0.1733 1.69 -3.69 8.92 184 387 197 215 212 
0.9868 -0.1030 -0.1072 -0.0646 3.37 12.88 9.44 7.95 -2.74 19.19 1.8600 -2.1400 6.5100 -0.2556 0.7478 3.5411 1.31 -2.01 9.50 180 386 214 228 212 
0.9768 -0.1143 -0.0691 0.1675 336.31 3.31 17.50 -3.60 -0.36 15.08 -4.9100 3.0400 4.5700 -3.3500 0.0756 1.3311 -0.01 -5.04 8.40 183 392 226 231 213 
0.9059 -0.3336 -0.0735 0.2503 330.44 -2.69 44.88 -3.64 -2.58 5.80 -2.9300 4.8700 -0.7300 -2.2022 1.5211 -1.4344 -0.43 -8.09 5.52 181 388 226 232 212 
0.8585 -0.5000 -0.0518 0.1013 351.50 0.75 62.31 -0.25 -2.84 2.70 -0.1200 6.3300 -2.1200 -0.0900 1.3322 -2.0556 1.13 -8.67 4.43 183 383 224 232 212 
0.8604 -0.4986 -0.0328 -0.1010 16.94 9.75 55.81 5.41 -1.53 2.17 3.5800 5.4600 -3.0000 3.2844 -0.1111 -0.6033 2.00 -6.30 7.23 182 376 224 236 214 
0.9526 -0.2542 -0.0901 -0.1410 15.56 16.50 22.75 4.46 -7.40 21.50 0.9300 -4.3500 12.3500 0.1633 -1.2144 0.4411 3.61 -3.12 8.56 181 362 254 261 215 
0.9473 -0.2233 -0.1899 -0.1287 15.13 27.56 28.62 5.63 -2.16 13.58 0.3200 3.3300 4.3100 -3.8867 -2.5789 1.8478 5.16 -6.47 5.25 182 328 324 334 214 
0.8004 -0.5189 -0.3001 -0.0117 356.44 25.56 83.06 3.45 -3.90 -4.80 -0.0600 4.6500 -7.3300 -2.6944 -1.2967 2.7578 1.98 -9.41 -1.87 185 324 342 354 213 
0.6258 -0.7217 -0.2582 0.1442 330.50 4.69 96.62 -0.60 -6.28 -8.30 -1.1200 3.9600 -7.6800 5.1656 -0.5144 0.3733 0.43 -9.55 2.17 186 318 342 348 215 
0.8320 -0.4669 -0.1585 0.2542 326.87 0.62 46.94 -1.35 6.92 6.76 -1.5200 12.7500 0.0000 6.5722 1.2222 0.1322 -0.58 -2.77 9.38 189 320 339 333 215 
0.9691 0.0059 -0.0283 0.2451 332.81 0.88 -7.06 0.53 4.95 20.04 1.2900 2.9600 10.1200 1.1111 -0.8644 -0.5833 0.35 2.57 9.45 191 324 340 326 215 
0.9710 0.1235 0.0139 0.2042 336.87 2.25 -12.25 -1.58 2.83 13.59 -2.7600 1.2200 2.2400 -2.3411 -0.2867 -0.7778 0.41 0.57 9.78 191 310 322 291 214 
0.9896 -0.0193 -0.0605 0.1290 349.31 10.31 6.19 -0.41 1.41 1.91 -2.7200 2.6100 -7.6000 -1.6211 -1.5622 -3.8778 3.36 -1.59 9.07 189 290 309 288 216 
;
